{
  "n_input_samples": 7,
  "chosen_method": "OLS",
  "min_energy_threshold_phys": 10.0,
  "test_all_events": {
    "mean": 0.0607341827915984,
    "rms": 9.713366750933442,
    "std": 9.71317687459566,
    "median": 0.08782094789073117,
    "n_samples": 114502
  },
  "test_signal_only": {
    "mean": -0.00974229947675871,
    "rms": 0.45460910710573005,
    "std": 0.4545047060970593,
    "median": 0.00757878144849162,
    "n_samples": 7271
  },
  "threshold_stability": [
    {
      "threshold": 1.0,
      "n_samples": 70059,
      "n_excluded": 44443,
      "pct_kept": 61.185830815182264,
      "mean": -0.02105597363518932,
      "rms": 2.893877138161134,
      "std": 2.893800535065599
    },
    {
      "threshold": 5.0,
      "n_samples": 21314,
      "n_excluded": 93188,
      "pct_kept": 18.61452201708267,
      "mean": -0.015286364288400113,
      "rms": 0.8007769851552223,
      "std": 0.8006310679839557
    },
    {
      "threshold": 10.0,
      "n_samples": 7271,
      "n_excluded": 107231,
      "pct_kept": 6.350107421704425,
      "mean": -0.00974229947675871,
      "rms": 0.45460910710573005,
      "std": 0.4545047060970593
    },
    {
      "threshold": 20.0,
      "n_samples": 1553,
      "n_excluded": 112949,
      "pct_kept": 1.3563081867565632,
      "mean": 0.0007377658291203009,
      "rms": 0.21265076295162338,
      "std": 0.2126494831535899
    },
    {
      "threshold": 50.0,
      "n_samples": 368,
      "n_excluded": 114134,
      "pct_kept": 0.3213917660826885,
      "mean": 0.005370636345557046,
      "rms": 0.05307761944497155,
      "std": 0.052805207614296946
    },
    {
      "threshold": 100.0,
      "n_samples": 301,
      "n_excluded": 114201,
      "pct_kept": 0.2628775043230686,
      "mean": 0.0064986169818012605,
      "rms": 0.05419474877821366,
      "std": 0.05380370593609268
    }
  ],
  "validation": {
    "OF": {
      "mean": -0.07671929064317201,
      "rms": 2.1854976863245192,
      "std": 2.184150701616771,
      "median": -0.06843287365980424,
      "n_samples": 7141
    },
    "Ridge": {
      "mean": -0.0009182071638543022,
      "rms": 0.4144328722851269,
      "std": 0.41443185510540154,
      "median": 0.008473802523690841,
      "n_samples": 7141
    }
  },
  "test_comparison": {
    "OF-style": {
      "mean": -0.07776245762141225,
      "rms": 2.24437892956515,
      "std": 2.2430313817824055,
      "median": -0.07286132300517396,
      "n_samples": 7271
    },
    "OLS": {
      "mean": -0.00974229947675871,
      "rms": 0.45460910710573005,
      "std": 0.4545047060970593,
      "median": 0.00757878144849162,
      "n_samples": 7271
    },
    "WLS Ridge": {
      "mean": -0.07123322066148434,
      "rms": 0.26997152464703816,
      "std": 0.2604044016418282,
      "median": -0.03786713178545806,
      "n_samples": 7271
    }
  },
  "of_weights": [
    -0.6253999060064249,
    1.2133374281245481,
    -2.5198032298897224,
    2.6704685723999626,
    -1.039914781621595,
    0.39594198782982826,
    -0.09463007083659564
  ],
  "of_effective_weights": [
    -20.778762593378502,
    40.31284642438279,
    -83.71986083312427,
    88.72568087403451,
    -34.550920390509596,
    13.15507803383303,
    -3.1440615152379174
  ],
  "of_effective_bias": -0.05489789449134685,
  "ridge_weights": [
    -3.19112169208944,
    16.96211842163612,
    -41.099643685294716,
    78.86894498150681,
    -31.578286253948406,
    11.85426609002165,
    -3.4354979626152926
  ],
  "ridge_bias": -0.07266115064169366,
  "ridge_best_lambda": 0.0,
  "wls_weights": [
    -1.222012083507903,
    6.340842343801876,
    -15.391901265011485,
    28.749618171463116,
    -11.51394960337238,
    4.33583003731505,
    -1.2604389701731789
  ],
  "wls_bias": 0.0318224293952889,
  "wls_best_lambda": 0.0,
  "of_calibration_alpha": 33.2247612988369,
  "of_calibration_beta": -0.006344682923668706,
  "pedestal": [
    0.0006592328427359462,
    0.0007529209833592176,
    0.001092819613404572,
    0.0032761513721197844,
    0.007623832207173109,
    0.009694322012364864,
    0.009989731945097446
  ],
  "template": [
    0.0,
    0.009852700866758823,
    0.24663788080215454,
    0.8835146427154541,
    1.0,
    0.9442793726921082,
    0.8859644532203674
  ],
  "template_derivative": [
    0.009852700866758823,
    0.12331894040107727,
    0.43683096766471863,
    0.37668105959892273,
    0.030382364988327026,
    -0.057017773389816284,
    -0.05831491947174072
  ],
  "of_time_weights": [
    -0.8605347992443434,
    -2.028064791649454,
    4.045462329868264,
    -1.4221596054665175,
    0.4827499079409075,
    -0.19510868814805168,
    -0.022344353300789325
  ],
  "time_estimate_signal": {
    "mean": 0.0016926983266181393,
    "std": 0.04221630210455407,
    "n_samples": 7271
  },
  "y_stats": {
    "mean_lo": 5.927589416503906,
    "std_lo": 81.05215454101562,
    "mean_hi": 237.14874267578125,
    "std_hi": 3242.1875
  }
}